{"w1":[[0.025029470895640036,-0.06653283308471593,0.0672188459776377,-0.024488899838505097,0.166528458213017,-0.1543863580397361,0.03591903122450751,0.00924580497132742,0.07020358910852162,-0.014064769006262348,0.03190823079742141,0.03631884497839237,0.09664092748613914,-0.0050668183300043804,0.011215633357316608,0.04215202764763343],[0.06007954892841113,0.14432117009019554,-0.03878302505972377,0.05558307845199996,-0.16238407669756424,0.2361199318554614,0.01713112265348667,0.02978714399174081,-0.07403450235598352,0.03895535680540141,-0.021951168547065594,-0.01675143635695434,-0.04691208036888807,0.05745402314283495,-0.01204447085759339,0.018670998083111637],[-0.003706421231025291,-0.050775281976208335,0.07735501687710272,-0.03819789765729219,0.12708779371140488,-0.1453908393703596,0.051334884432126006,0.03966350554054966,0.07101650676081604,-0.026236097583829925,0.01166817431796177,0.0008092477738302251,0.06977248137658713,0.004219566842192146,0.030798800250049652,0.041574583719294685],[0.03566165711694671,0.10730505005494505,-0.01606035967399495,0.07566336870430992,-0.11088791672024506,0.1794556031372066,-0.0006374324552539816,0.012611490710792046,-0.06973606314629824,0.032724071799039293,-0.020743569149825475,-0.01354012286031831,-0.029688366317289498,0.06203536206101672,-0.012987626365160284,0.0259750023870218],[-0.021961642178411355,-0.10592012903196395,0.08275786154487078,-0.0045277060284326385,0.1859085334738932,-0.22098157126286605,0.024941043431900477,0.034660937787708394,0.10783208774531507,-0.009203136504753304,0.032114563414872635,0.03372337742943639,0.07504326250436164,-0.022242305068941943,0.020066849020127214,0.06051555647592939],[0.05083113389134375,0.1122343753092981,-0.05164545685362802,0.06174841264485042,-0.11792017021951454,0.22640783597632336,0.009552287953787323,0.03197168505244921,-0.04681963577065814,0.046618550606943115,-0.03139436667196948,-0.041325905915190635,-0.06678018583196355,0.046613683666516074,-0.002274939809848975,0.044968226812887306],[0.012726564749995024,-0.07874952151483265,0.06567862688709962,-0.006689080190642847,0.17425243736567364,-0.15524534596769035,0.044795081294416034,0.03630940289658144,0.0696418900312298,-0.034962811350902276,0.02192085860007985,0.03646408420450095,0.08343458517116076,-0.03893312190658066,0.01084745917384013,0.04674550498051736],[0.060931676283954836,0.14336442704005986,-0.05092987581554784,0.06212055615486985,-0.16979980168134892,0.2501204652578655,0.016823577973277895,0.023399985614984898,-0.06690109888661577,0.04324136621905995,-0.04213803946984129,-0.04042271751606814,-0.05317457963789862,0.05987585233251792,-0.011477454286871445,0.0489459765169718],[0.008765023402644508,-0.05804180428698011,0.07376954792782109,-0.030428754230316196,0.13611157595096665,-0.1631732711171275,0.035597003614700855,0.03867407042339187,0.09630412507647249,-0.017019536414699492,0.011818904984091017,0.01317138260508731,0.07264751779162454,-0.03155078436651192,0.010817500624051164,0.042218763561309276],[0.022482362729930802,0.10971447429962612,-0.019892614193469875,0.06669023518903879,-0.11552115510856703,0.1835223405891878,-0.012923499812972139,0.012647568590552495,-0.042172823879003826,0.053386157806107754,-0.021271962600395815,-0.03486999864911474,-0.05444440509766283,0.04213844428484748,-0.003166203197801754,0.05224583009137659],[-0.0005324652085601376,-0.06386778172569649,0.0615851235848645,-0.02328458909533654,0.14222990696276544,-0.13485291655723106,0.04483592875182342,0.0059766834358987156,0.06365654037733831,-0.013529431589260142,0.04207436333501835,0.03150642727463704,0.07738295363050837,-0.007486759049693497,0.01165889187819705,0.034098364535171045],[0.05340840107830866,0.13857898689547457,-0.03489033127904922,0.05082854778535602,-0.13915526842981168,0.212615725270922,0.01518150164815944,0.0316011323512852,-0.05770003511850293,0.036805280529389035,-0.031689722787335756,-0.031113239281929436,-0.04444503871559014,0.06127384034881541,-0.01292820364376971,0.016383509069767495],[0.02633042450560548,-0.06125620139720378,0.0609074247578248,-0.016763869651073245,0.1422978820283878,-0.13996365716494613,0.053903347291175865,0.032328448095214214,0.06408807059387535,-0.024988168351545475,0.02171809337957915,0.03211987042520419,0.08172898028772947,-0.025942314121169374,0.011006893612728922,0.04496511063665499],[0.060251050853231784,0.13251761022629838,-0.04431525589408587,0.06957388668519782,-0.1344679536345804,0.2668604558462486,0.01362483274215622,0.002098726986566112,-0.07344450470573406,0.0511072958307725,-0.011397168028913406,-0.018685651904474344,-0.04955068166175235,0.04433846091753069,-0.02092300204538634,0.04002320502344432],[-0.02679850497617371,-0.0979082016503463,0.05349010093741389,-0.013821843935051044,0.14177200487744318,-0.18024535680506085,0.009333092087833967,0.01212702619518419,0.0857733964196208,-0.010359803782690124,0.03107317902901192,0.017010028836957132,0.05765253957446129,-0.01965940529800361,0.017842235979785365,0.03383069563940971],[0.03713123262914489,0.11856469187598564,-0.0197226233367865,0.08186319352900268,-0.1234483961788131,0.19807738631764185,-0.0003931631945958685,0.014374527013049991,-0.07422814771953871,0.03665935271957849,-0.02110213570734509,-0.018351931158944956,-0.036935002248073036,0.06465081461771516,-0.01241174137804159,0.024928191280928904]],"b1":[0.08215202764763334,-0.001329001916888035,0.08157458371929481,-0.004024997612978534,0.08051555647592856,0.004968226812887295,0.08674550498051863,-0.011054023483029364,0.07221876356131046,0.002245830091376038,0.09409836453517054,-0.0136164909302334,0.07496511063665598,0.010023205023445121,0.06383069563940992,-0.005071808719071055],"w2":[[0.0905045477063746,-0.10770883353609652,0.07243197172664316,-0.08015557502388349,0.10669711308846414,-0.07061037031394911,0.10518993902714968,-0.11985133817970206,0.07491323901940927,-0.06919255941064426,0.09507903793793994,-0.07321223300123654,0.0845456112725203,-0.09685448173905563,0.08716956131358487,-0.09359854032727381],[-0.06759688484312062,0.14315484386622612,-0.07345280577837203,0.09835871944109362,-0.11434662527703938,0.12645439648576554,-0.07001436019709267,0.15732397787427452,-0.08152379834678333,0.10469288889582193,-0.06445574813566472,0.1501449547374921,-0.059580273321357874,0.1385099350171213,-0.08602057136695156,0.1047291075040136],[0.08457304158936622,-0.03860225517103048,0.06896196394077089,-0.059456700903509435,0.07666342604329376,-0.054410515015499906,0.0787510902586314,-0.03948307687671129,0.09092504718930698,-0.03844378977599276,0.053061883936441255,-0.0576607351062006,0.0705368878647984,-0.06706152292452215,0.07016446332965995,-0.04046040306945607],[-0.05035275550325388,0.06931708397004871,-0.020736864467296005,0.06825429886429916,-0.041554683520241234,0.056309661852326276,-0.052425725527091765,0.07165477458059287,-0.021155336338456066,0.07042650958851285,-0.02876719833238924,0.05735667173745447,-0.038108898912718285,0.06828443559450453,-0.031146762890407173,0.08117250155990172],[0.0834158733583274,-0.09097421546094062,0.08540975810743602,-0.04666279044327845,0.11849607239300848,-0.09455414902984415,0.08888646128270243,-0.07258764341709534,0.10801282253651603,-0.045498953666213385,0.08672399777689632,-0.0685169109164683,0.07786077762852124,-0.07913627461731235,0.09968023124576283,-0.04869656259753219],[-0.03525858496746719,0.07345451848737533,-0.055673836846591974,0.06968508618261719,-0.03781179282994021,0.08997596700982269,-0.03753524159683895,0.10619279064746963,-0.025497722390413587,0.07240564255181836,-0.04204512182069403,0.07115963065447492,-0.05233822851319205,0.08177609917862569,-0.037171926536607974,0.08332297253902823],[0.1119817578769829,-0.0828724829954262,0.07382533412600137,-0.058289924985457514,0.12797527875532408,-0.05616498584944458,0.10777730004615729,-0.07470770375827596,0.07721208002758521,-0.07706403061012168,0.07594312695260012,-0.06016288012920308,0.09661607079398712,-0.10098331136501565,0.0892554377307485,-0.060442524721447524],[-0.028401543169961803,0.0684537403763246,-0.0477183709175992,0.04717458619651373,-0.06894401172869977,0.0652871306210435,-0.030084859773041532,0.08065237880924248,-0.037888078847406664,0.049637949927607075,-0.05560599895975108,0.0669205494429074,-0.025349665431119765,0.0771413469094151,-0.04611257217396511,0.08015575438870831]],"b2":[0.13526854596518265,0.05785242862004489,0.168749415880297,0.060501664024095694,0.17919072131739794,0.07978263289626161,0.17217025344410047,0.03369636905053658],"w3":[0.28264738745883894,-0.3152894753130156,0.21606723680482187,-0.15741822188828256,0.26904371600000376,-0.19387555482225324,0.2708163282594168,-0.16088002515233205],"b3":0.054760659051165145}