{"w1":[[0.265049563124159,-0.31487956209352574,0.46695343305176135,-0.12131127015534754,-0.07451332069524982,-0.5161385154388958,0.378150840379945,-0.2042505939657527,0.3931346543426505,-0.21429876671995426,-0.03370601297781298,0.34403866088333723,0.12454004591511711,-0.47372465729196706,0.03139805991501732,-0.026771224240232167],[1.5875527379411731,0.1531087978616345,-0.13251425529281605,0.8151654186946535,-0.1124976842452883,0.13261081648631814,0.16597896325319353,0.5565054002368911,-0.8327133138315637,0.047792230100403885,-0.19340985906055425,-1.5042990954530961,-0.8257775990237126,0.1319020749637482,0.11738579404476858,-0.0006121803290662172],[0.26611686255416567,0.1592531750450537,0.23280906197115736,-0.032313834001395716,0.5336101967568063,0.15824420610936044,0.3901922050702845,0.020835440619055047,0.5789159945950748,-0.20372944001042823,-0.19842392277052845,0.8479325715877248,-0.13635058978250142,-0.3514734857550848,0.08841240417106844,-0.15866442378390622],[-0.19234528859962943,0.31347014585839883,0.05482700800991778,0.07118666001575139,-0.2036131257228035,1.0440980739067076,0.2997636568811577,-0.2694555658167886,-0.16952888765567403,0.1380378512888877,0.3101493286438066,-0.3135707694408107,-0.05344968840561599,-0.037090036399789014,-0.028164687313685488,-0.002263028389870039],[0.0637970964266876,-1.1598898481199407,0.20052558852842028,-1.0081233155953047,-0.5688889303193861,-1.373046533718481,-0.3266474161542344,0.34730803832231844,0.47578313642010284,-0.281215802789884,0.034850744877346074,1.7118671474073024,1.022318206836256,-0.19633069728739422,-0.10969607119460993,0.004194891241002082],[-0.5600420400622756,0.4302189591911859,-0.29140460493294285,0.16273738433135,-0.6449762274348408,0.8143670659340845,-0.15434424936797808,-0.11900553702836329,-0.4156202702671421,0.3457946522621639,0.3034814268903203,-0.5257157783832717,-0.28845067477852443,0.16569131448576838,-0.04898844853830639,-0.07571329044719165],[0.3665858810554966,-0.2715150383802633,0.15583604239233914,0.05024849028327205,0.759683182294112,-0.016332435992352307,0.22041086468100926,0.5081420862632516,0.6775184387397861,0.08078280469189351,-0.060683507329095325,1.6059489070341777,-0.007720614372741453,-0.1633081664817998,0.047226072973878076,0.012527875910526514],[-1.0235887284673333,0.41331920249103427,-0.35499281482406725,0.22304375004513116,-0.09827035229825595,0.9978411438503169,0.09886610471954746,-1.8152514408304499,-0.36021289626050407,0.14331729171535912,0.32321372407810944,-1.5644867782188383,-0.14853056348128663,0.4295060013878678,-0.08241435831207226,0.1145131865638452],[-0.017812214300540027,0.22169982302078267,0.2146917820975684,0.06112688838507565,0.505231793828892,-0.009030583717449043,0.2037081725209042,0.24769471999643852,0.5299131982472066,-0.035100198063454074,-0.09548644955523382,0.7486142798593036,-0.148329808321928,-0.30189470203444135,0.04974526679190458,-0.08720291993684826],[-1.001815673134311,0.5273861546896459,-0.3821091305615416,0.4681710297236819,-0.7329209213866872,-0.28338643344077535,-0.5968943259566974,0.2626330130082641,-0.594449614063546,0.4662349033305848,0.10361642138721253,-0.8599241065240099,-0.6062821824625534,0.2539979778226842,-0.05104910594476651,-0.09811115273884029],[-0.027344199882031708,0.025085175744013727,0.2081872727527362,0.2125942995856891,0.35213984822221345,0.06677871092019852,0.18074555098311848,0.2681339766014685,0.5327746820402497,0.20173870860631937,0.04906576264835134,0.7480428235344442,-0.281057941308969,-0.2766509144759855,0.04148013822470176,-0.08846364172328343],[0.6061070693473625,0.041943312749810474,0.05008984301622851,0.27892857068100074,0.005956545782800095,0.7219917532165697,0.2466436594287074,-0.11460394650173639,-0.3386595158560262,0.07069013185334715,-0.10210542302662172,-0.862559236167104,-0.36120284150796755,-0.1123641138432091,0.028075331303611208,-0.07227427082697983],[0.18189680211974396,0.30073415493935546,0.21953085290086266,0.12909783849053533,0.5859591914551001,0.26746846344333225,0.34367438587854776,0.2221755463276085,0.6539218196422271,-0.09240488557482227,-0.15117428221402238,0.9612165076788828,-0.24570269102953132,-0.3661357054398894,0.07391307934584448,-0.13660485253900295],[1.2963595247976683,0.5389839073536143,-0.20170763192326024,0.8367368111935912,0.18469916654722013,0.22419888155812698,0.11423997445069826,0.03883227549891849,-0.7915969113195249,-0.032772168380257045,-0.21634687845123707,-1.9410311312776631,-0.8124657780736979,0.20597866504310727,0.1094612324835261,0.04427103311985117],[-0.8024727914209533,-0.7719472439543806,0.003194491678393446,-1.689637505302046,-0.043896818677644334,0.15566070649738795,0.04424124091671018,-1.0392989817693128,0.3533588665103228,-0.20200378880500347,1.0824729975472243,1.3635979045165678,1.605369142071116,-0.09746285490922361,-0.2336490621596469,-0.09426836323083705],[-0.9585906058383021,0.3281943556965841,-0.3293024426294555,0.23127566169067348,-0.2719546300970583,0.6208250088257345,-0.04084692326249041,-1.4373336111489075,-0.4366358366633498,0.1896988344377182,0.358022659864667,-1.3927043717697731,-0.10995041574284357,0.4506276885772844,-0.08197684664560231,0.10132524594781919]],"b1":[0.013228775759765969,-0.020612180329065956,-0.1186644237839111,-0.03226302838987594,0.024194891241002534,-0.11571329044719744,0.052527875910526246,0.05451318656383861,-0.057202919936841554,-0.14811115273883976,-0.02846364172328478,-0.10227427082698205,-0.10660485253900316,0.01427103311985268,-0.06426836323082986,0.0713252459478137],"w2":[[0.35016872766046814,-0.28533723524095483,0.08293167488832823,-0.3044140565722666,0.4036212452279911,-0.2886799540640954,0.03276212089362002,-0.262714638284133,-0.006881499785763829,-0.2129050711231941,0.046987122490009504,-0.27327913471445264,-0.028368290217032684,-0.30995019783574224,0.5155177578305337,-0.2061404601729783],[-0.20809640561712042,-0.01615050473904382,-0.5175709180419257,-0.10234347616370384,-0.19584188342414763,0.20672228926909808,-0.7474891034867333,0.1077377012735828,-0.4057746675149564,0.662307144513435,-0.4039446598405762,0.11136261255585646,-0.5636941584727608,0.0672339876909235,0.7882326301018704,0.177652776218701],[0.23269619855430615,-0.2813778868629156,0.18487077437918192,-0.24769944427434443,0.2096939460173402,-0.07891761777695393,0.35449753779441046,-0.7453590164837787,0.1641320134332891,-0.0859540128062,0.04078731308609927,-0.3263990620442307,0.12716360751811562,-0.22515712212730624,0.1849265225125087,-0.7113393622382916],[-0.13867555682447574,0.02187222021619107,-0.4202296648477696,0.0026846336082937813,-0.02041575472827175,0.14586200283209003,-0.649693282551962,0.05627101572168732,-0.301255285000991,0.701522891878643,-0.315313148403878,0.11420951802851183,-0.47547470661135643,0.018217634448749444,0.7086450225633192,0.12585553647084968],[-0.12646447553300666,-1.0011151066610227,-0.2541846486111961,-0.3924497122270899,0.13378598532995595,-0.5831909224451299,0.17807670750151236,-0.4888547310013266,-0.15600591533793218,-0.3273895619801725,-0.1313416735793661,-0.36234799304988663,-0.3667378280178131,-0.8361471462996474,0.8267620277268145,-0.36447912548602024],[-0.12544980777422615,-0.5712195078468448,-0.24202581528367523,0.2739093499135525,-0.5093055860801562,-0.027982919383389277,-0.44406302097207195,0.31835901933434235,-0.19235617758577148,0.044268365252975415,-0.1265696318387027,-0.1285050785773919,-0.20259881934975457,-0.40340338258370734,0.7125620738748711,0.11737537330889117],[0.39297350899451344,-0.6108839021614011,-0.021190595160674366,-0.14339709575186257,0.5898228276568748,-0.24836970470222935,0.2870693283134138,-0.27456849000706723,0.026683330651597507,-0.19153253198245362,-0.030323285359047943,-0.3483609752383057,0.0006462474136684502,-0.6393691566568187,0.8678986813752692,-0.25290277844043274],[-0.10948216962765248,0.35981569058668417,-0.2181085527559216,0.1610237037188527,-0.5828322275625611,0.17158304148943715,-0.28833128141312103,0.11987389818574647,-0.28027026010384926,0.3151012141023611,-0.47433155040423125,0.284391546902526,-0.1819518356943665,0.34422514968852863,0.20007005558473545,0.2228142404342847]],"b2":[-0.01211618422571347,-0.27492202457532156,0.1639586998153629,-0.27984152461361544,0.2239977507889072,0.010613596077867916,-0.02317526266576829,-0.17868134913249722],"w3":[0.1699808062721246,-0.2835488646006592,0.4092317274236703,-0.3243217726864722,0.589654208874423,-0.37405559391786947,0.298821564802784,-0.3192721508410641],"b3":0.03277915513737787}